<?xml version="1.0"?>
<opencv_storage>
<cascade>
  <stageType>BOOST</stageType>
  <featureType>HAAR</featureType>
  <height>30</height>
  <width>30</width>
  <stageParams>
    <boostType>GAB</boostType>
    <minHitRate>9.9500000476837158e-01</minHitRate>
    <maxFalseAlarm>5.0000000000000000e-01</maxFalseAlarm>
    <weightTrimRate>9.4999999999999996e-01</weightTrimRate>
    <maxDepth>1</maxDepth>
    <maxWeakCount>100</maxWeakCount></stageParams>
  <featureParams>
    <maxCatCount>0</maxCatCount>
    <featSize>1</featSize>
    <mode>BASIC</mode></featureParams>
  <stageNum>2</stageNum>
  <stages>
    <!-- stage 0 -->
    <_>
      <maxWeakCount>4</maxWeakCount>
      <stageThreshold>-8.0653500556945801e-01</stageThreshold>
      <weakClassifiers>
        <_>
          <internalNodes>
            0 -1 6 1.0107884183526039e-02</internalNodes>
          <leafValues>
            -5.8671587705612183e-01 9.5049506425857544e-01</leafValues></_>
        <_>
          <internalNodes>
            0 -1 3 -5.0401547923684120e-03</internalNodes>
          <leafValues>
            7.6583057641983032e-01 -5.1696610450744629e-01</leafValues></_>
        <_>
          <internalNodes>
            0 -1 0 1.0333329439163208e-02</internalNodes>
          <leafValues>
            -3.8296028971672058e-01 9.4142067432403564e-01</leafValues></_>
        <_>
          <internalNodes>
            0 -1 5 1.0020539630204439e-03</internalNodes>
          <leafValues>
            -5.5717021226882935e-01 6.8010729551315308e-01</leafValues></_></weakClassifiers></_>
    <!-- stage 1 -->
    <_>
      <maxWeakCount>4</maxWeakCount>
      <stageThreshold>-8.5396492481231689e-01</stageThreshold>
      <weakClassifiers>
        <_>
          <internalNodes>
            0 -1 7 5.7178596034646034e-03</internalNodes>
          <leafValues>
            -5.5390334129333496e-01 9.2118227481842041e-01</leafValues></_>
        <_>
          <internalNodes>
            0 -1 4 -6.0981436399742961e-04</internalNodes>
          <leafValues>
            6.7306751012802124e-01 -6.7609018087387085e-01</leafValues></_>
        <_>
          <internalNodes>
            0 -1 2 2.3679535370320082e-03</internalNodes>
          <leafValues>
            -4.2100802063941956e-01 9.2800450325012207e-01</leafValues></_>
        <_>
          <internalNodes>
            0 -1 1 -2.0364099182188511e-03</internalNodes>
          <leafValues>
            7.9703664779663086e-01 -3.7190273404121399e-01</leafValues></_></weakClassifiers></_></stages>
  <features>
    <_>
      <rects>
        <_>
          2 5 6 11 -1.</_>
        <_>
          4 5 2 11 3.</_></rects>
      <tilted>0</tilted></_>
    <_>
      <rects>
        <_>
          5 20 2 9 -1.</_>
        <_>
          5 23 2 3 3.</_></rects>
      <tilted>0</tilted></_>
    <_>
      <rects>
        <_>
          9 3 14 2 -1.</_>
        <_>
          9 4 14 1 2.</_></rects>
      <tilted>0</tilted></_>
    <_>
      <rects>
        <_>
          12 4 4 9 -1.</_>
        <_>
          12 7 4 3 3.</_></rects>
      <tilted>0</tilted></_>
    <_>
      <rects>
        <_>
          12 11 8 5 -1.</_>
        <_>
          16 11 4 5 2.</_></rects>
      <tilted>0</tilted></_>
    <_>
      <rects>
        <_>
          17 12 10 2 -1.</_>
        <_>
          22 12 5 2 2.</_></rects>
      <tilted>0</tilted></_>
    <_>
      <rects>
        <_>
          20 12 9 7 -1.</_>
        <_>
          23 12 3 7 3.</_></rects>
      <tilted>0</tilted></_>
    <_>
      <rects>
        <_>
          20 15 9 3 -1.</_>
        <_>
          23 15 3 3 3.</_></rects>
      <tilted>0</tilted></_></features></cascade>
</opencv_storage>
