<?xml version="1.0"?>
<opencv_storage>
<cascade>
  <stageType>BOOST</stageType>
  <featureType>HAAR</featureType>
  <height>20</height>
  <width>20</width>
  <stageParams>
    <boostType>GAB</boostType>
    <minHitRate>9.9500000476837158e-01</minHitRate>
    <maxFalseAlarm>5.0000000000000000e-01</maxFalseAlarm>
    <weightTrimRate>9.4999999999999996e-01</weightTrimRate>
    <maxDepth>1</maxDepth>
    <maxWeakCount>100</maxWeakCount></stageParams>
  <featureParams>
    <maxCatCount>0</maxCatCount>
    <featSize>1</featSize>
    <mode>BASIC</mode></featureParams>
  <stageNum>15</stageNum>
  <stages>
    <!-- stage 0 -->
    <_>
      <maxWeakCount>4</maxWeakCount>
      <stageThreshold>-4.7790646553039551e-01</stageThreshold>
      <weakClassifiers>
        <_>
          <internalNodes>
            0 -1 87 8.8701397180557251e-03</internalNodes>
          <leafValues>
            -4.1596639156341553e-01 9.5470380783081055e-01</leafValues></_>
        <_>
          <internalNodes>
            0 -1 55 -6.0663959011435509e-03</internalNodes>
          <leafValues>
            7.6822817325592041e-01 -4.2758581042289734e-01</leafValues></_>
        <_>
          <internalNodes>
            0 -1 92 4.7073308378458023e-03</internalNodes>
          <leafValues>
            -3.7610739469528198e-01 9.5878416299819946e-01</leafValues></_>
        <_>
          <internalNodes>
            0 -1 19 -1.5370157547295094e-02</internalNodes>
          <leafValues>
            7.7604526281356812e-01 -4.5406085252761841e-01</leafValues></_></weakClassifiers></_>
    <!-- stage 1 -->
    <_>
      <maxWeakCount>5</maxWeakCount>
      <stageThreshold>-8.6422395706176758e-01</stageThreshold>
      <weakClassifiers>
        <_>
          <internalNodes>
            0 -1 107 -1.1232448741793633e-03</internalNodes>
          <leafValues>
            8.8828825950622559e-01 -4.0000000596046448e-01</leafValues></_>
        <_>
          <internalNodes>
            0 -1 77 1.7333240248262882e-03</internalNodes>
          <leafValues>
            -2.9318222403526306e-01 8.3870011568069458e-01</leafValues></_>
        <_>
          <internalNodes>
            0 -1 69 -6.7087169736623764e-03</internalNodes>
          <leafValues>
            6.0134786367416382e-01 -5.8183842897415161e-01</leafValues></_>
        <_>
          <internalNodes>
            0 -1 2 -5.1994184032082558e-03</internalNodes>
          <leafValues>
            7.7058249711990356e-01 -4.2834904789924622e-01</leafValues></_>
        <_>
          <internalNodes>
            0 -1 95 2.1954132243990898e-03</internalNodes>
          <leafValues>
            -3.4404057264328003e-01 8.5194051265716553e-01</leafValues></_></weakClassifiers></_>
    <!-- stage 2 -->
    <_>
      <maxWeakCount>5</maxWeakCount>
      <stageThreshold>-4.1163605451583862e-01</stageThreshold>
      <weakClassifiers>
        <_>
          <internalNodes>
            0 -1 91 1.0961786843836308e-02</internalNodes>
          <leafValues>
            -3.5609754920005798e-01 8.3362829685211182e-01</leafValues></_>
        <_>
          <internalNodes>
            0 -1 53 8.8599324226379395e-03</internalNodes>
          <leafValues>
            -3.2767295837402344e-01 8.8542705774307251e-01</leafValues></_>
        <_>
          <internalNodes>
            0 -1 12 4.0442757308483124e-03</internalNodes>
          <leafValues>
            -2.7657428383827209e-01 8.8801330327987671e-01</leafValues></_>
        <_>
          <internalNodes>
            0 -1 7 6.0397256165742874e-03</internalNodes>
          <leafValues>
            -3.3160337805747986e-01 8.8407683372497559e-01</leafValues></_>
        <_>
          <internalNodes>
            0 -1 72 1.3462735805660486e-03</internalNodes>
          <leafValues>
            -2.8427544236183167e-01 8.8727170228958130e-01</leafValues></_></weakClassifiers></_>
    <!-- stage 3 -->
    <_>
      <maxWeakCount>6</maxWeakCount>
      <stageThreshold>-7.2107732295989990e-01</stageThreshold>
      <weakClassifiers>
        <_>
          <internalNodes>
            0 -1 85 -8.4611177444458008e-03</internalNodes>
          <leafValues>
            6.8592590093612671e-01 -4.6000000834465027e-01</leafValues></_>
        <_>
          <internalNodes>
            0 -1 40 9.7146874759346247e-04</internalNodes>
          <leafValues>
            -6.5378439426422119e-01 4.8925897479057312e-01</leafValues></_>
        <_>
          <internalNodes>
            0 -1 101 -1.4306176453828812e-02</internalNodes>
          <leafValues>
            6.6284561157226562e-01 -4.7216990590095520e-01</leafValues></_>
        <_>
          <internalNodes>
            0 -1 77 2.4320576339960098e-03</internalNodes>
          <leafValues>
            -3.5025539994239807e-01 7.2820150852203369e-01</leafValues></_>
        <_>
          <internalNodes>
            0 -1 9 -5.1427348516881466e-03</internalNodes>
          <leafValues>
            4.5008963346481323e-01 -6.7851579189300537e-01</leafValues></_>
        <_>
          <internalNodes>
            0 -1 61 -2.5168396532535553e-03</internalNodes>
          <leafValues>
            7.6504278182983398e-01 -3.2406893372535706e-01</leafValues></_></weakClassifiers></_>
    <!-- stage 4 -->
    <_>
      <maxWeakCount>7</maxWeakCount>
      <stageThreshold>-1.0038303136825562e+00</stageThreshold>
      <weakClassifiers>
        <_>
          <internalNodes>
            0 -1 84 1.0485821403563023e-02</internalNodes>
          <leafValues>
            -1.8383838236331940e-01 8.6666667461395264e-01</leafValues></_>
        <_>
          <internalNodes>
            0 -1 25 -1.6923467628657818e-03</internalNodes>
          <leafValues>
            7.5465744733810425e-01 -3.1145688891410828e-01</leafValues></_>
        <_>
          <internalNodes>
            0 -1 27 7.4689276516437531e-03</internalNodes>
          <leafValues>
            -3.5110926628112793e-01 6.7167985439300537e-01</leafValues></_>
        <_>
          <internalNodes>
            0 -1 90 2.3048529401421547e-03</internalNodes>
          <leafValues>
            -2.7003955841064453e-01 9.2612749338150024e-01</leafValues></_>
        <_>
          <internalNodes>
            0 -1 103 -6.7065411712974310e-04</internalNodes>
          <leafValues>
            6.3805246353149414e-01 -2.9722553491592407e-01</leafValues></_>
        <_>
          <internalNodes>
            0 -1 12 6.0333511792123318e-03</internalNodes>
          <leafValues>
            -3.1779834628105164e-01 7.5016754865646362e-01</leafValues></_>
        <_>
          <internalNodes>
            0 -1 24 1.4313161373138428e-03</internalNodes>
          <leafValues>
            -2.6614904403686523e-01 7.2763764858245850e-01</leafValues></_></weakClassifiers></_>
    <!-- stage 5 -->
    <_>
      <maxWeakCount>8</maxWeakCount>
      <stageThreshold>-9.4589948654174805e-01</stageThreshold>
      <weakClassifiers>
        <_>
          <internalNodes>
            0 -1 35 3.2497122883796692e-02</internalNodes>
          <leafValues>
            -1.6844350099563599e-01 7.9841899871826172e-01</leafValues></_>
        <_>
          <internalNodes>
            0 -1 32 1.9671138375997543e-02</internalNodes>
          <leafValues>
            -2.5647360086441040e-01 7.6661610603332520e-01</leafValues></_>
        <_>
          <internalNodes>
            0 -1 105 -1.5076078474521637e-02</internalNodes>
          <leafValues>
            7.9557412862777710e-01 -2.5812664628028870e-01</leafValues></_>
        <_>
          <internalNodes>
            0 -1 22 -1.6525249229744077e-03</internalNodes>
          <leafValues>
            6.6336148977279663e-01 -2.9110661149024963e-01</leafValues></_>
        <_>
          <internalNodes>
            0 -1 38 -2.4051971733570099e-02</internalNodes>
          <leafValues>
            -8.2781952619552612e-01 2.5390455126762390e-01</leafValues></_>
        <_>
          <internalNodes>
            0 -1 30 -7.3610819526948035e-05</internalNodes>
          <leafValues>
            2.5338113307952881e-01 -6.6935157775878906e-01</leafValues></_>
        <_>
          <internalNodes>
            0 -1 37 -1.5232043340802193e-02</internalNodes>
          <leafValues>
            -8.1023043394088745e-01 2.3035457730293274e-01</leafValues></_>
        <_>
          <internalNodes>
            0 -1 51 -2.1776957437396049e-03</internalNodes>
          <leafValues>
            2.5294101238250732e-01 -7.0938938856124878e-01</leafValues></_></weakClassifiers></_>
    <!-- stage 6 -->
    <_>
      <maxWeakCount>8</maxWeakCount>
      <stageThreshold>-7.9590290784835815e-01</stageThreshold>
      <weakClassifiers>
        <_>
          <internalNodes>
            0 -1 100 -3.2236939296126366e-03</internalNodes>
          <leafValues>
            7.1617162227630615e-01 -2.9539296030998230e-01</leafValues></_>
        <_>
          <internalNodes>
            0 -1 56 -1.2561379000544548e-02</internalNodes>
          <leafValues>
            5.7837384939193726e-01 -4.0842935442924500e-01</leafValues></_>
        <_>
          <internalNodes>
            0 -1 45 1.4874426648020744e-02</internalNodes>
          <leafValues>
            2.6432630419731140e-01 -8.0532610416412354e-01</leafValues></_>
        <_>
          <internalNodes>
            0 -1 60 6.4625567756593227e-03</internalNodes>
          <leafValues>
            -3.2151311635971069e-01 6.8659526109695435e-01</leafValues></_>
        <_>
          <internalNodes>
            0 -1 3 -1.2478609569370747e-02</internalNodes>
          <leafValues>
            6.4352947473526001e-01 -3.3566087484359741e-01</leafValues></_>
        <_>
          <internalNodes>
            0 -1 1 4.6254448592662811e-02</internalNodes>
          <leafValues>
            -1.7957547307014465e-01 7.7218139171600342e-01</leafValues></_>
        <_>
          <internalNodes>
            0 -1 57 9.6563417464494705e-03</internalNodes>
          <leafValues>
            2.1085271239280701e-01 -8.8290709257125854e-01</leafValues></_>
        <_>
          <internalNodes>
            0 -1 11 -2.8616688214242458e-03</internalNodes>
          <leafValues>
            2.6948982477188110e-01 -6.1913537979125977e-01</leafValues></_></weakClassifiers></_>
    <!-- stage 7 -->
    <_>
      <maxWeakCount>9</maxWeakCount>
      <stageThreshold>-6.8376445770263672e-01</stageThreshold>
      <weakClassifiers>
        <_>
          <internalNodes>
            0 -1 98 -1.2600028887391090e-02</internalNodes>
          <leafValues>
            7.0081299543380737e-01 -2.9444444179534912e-01</leafValues></_>
        <_>
          <internalNodes>
            0 -1 58 -8.1843687221407890e-03</internalNodes>
          <leafValues>
            6.4965796470642090e-01 -2.9277184605598450e-01</leafValues></_>
        <_>
          <internalNodes>
            0 -1 5 -6.0792583972215652e-03</internalNodes>
          <leafValues>
            7.8780215978622437e-01 -2.7575561404228210e-01</leafValues></_>
        <_>
          <internalNodes>
            0 -1 36 6.0270731337368488e-03</internalNodes>
          <leafValues>
            -2.7556183934211731e-01 6.2482899427413940e-01</leafValues></_>
        <_>
          <internalNodes>
            0 -1 71 -3.9050737395882607e-03</internalNodes>
          <leafValues>
            7.0448327064514160e-01 -2.6089492440223694e-01</leafValues></_>
        <_>
          <internalNodes>
            0 -1 108 2.1483467426151037e-03</internalNodes>
          <leafValues>
            -3.0821695923805237e-01 5.1911258697509766e-01</leafValues></_>
        <_>
          <internalNodes>
            0 -1 10 -1.6168232541531324e-03</internalNodes>
          <leafValues>
            2.3754434287548065e-01 -7.8827619552612305e-01</leafValues></_>
        <_>
          <internalNodes>
            0 -1 89 2.4390316102653742e-03</internalNodes>
          <leafValues>
            -2.6316913962364197e-01 6.8806529045104980e-01</leafValues></_>
        <_>
          <internalNodes>
            0 -1 78 3.1819015275686979e-03</internalNodes>
          <leafValues>
            2.2217644751071930e-01 -8.7481248378753662e-01</leafValues></_></weakClassifiers></_>
    <!-- stage 8 -->
    <_>
      <maxWeakCount>9</maxWeakCount>
      <stageThreshold>-6.0622882843017578e-01</stageThreshold>
      <weakClassifiers>
        <_>
          <internalNodes>
            0 -1 81 -1.0913860984146595e-02</internalNodes>
          <leafValues>
            6.5496182441711426e-01 -3.2499998807907104e-01</leafValues></_>
        <_>
          <internalNodes>
            0 -1 28 9.8672294989228249e-03</internalNodes>
          <leafValues>
            -2.2666233777999878e-01 7.0384818315505981e-01</leafValues></_>
        <_>
          <internalNodes>
            0 -1 39 5.6613020598888397e-02</internalNodes>
          <leafValues>
            2.3634062707424164e-01 -7.3301899433135986e-01</leafValues></_>
        <_>
          <internalNodes>
            0 -1 65 4.6577290631830692e-03</internalNodes>
          <leafValues>
            -2.6582804322242737e-01 6.8366777896881104e-01</leafValues></_>
        <_>
          <internalNodes>
            0 -1 5 -5.5297752842307091e-03</internalNodes>
          <leafValues>
            5.6569123268127441e-01 -2.8625050187110901e-01</leafValues></_>
        <_>
          <internalNodes>
            0 -1 66 -5.8753443881869316e-03</internalNodes>
          <leafValues>
            5.8850753307342529e-01 -2.9909795522689819e-01</leafValues></_>
        <_>
          <internalNodes>
            0 -1 48 -1.6975753009319305e-02</internalNodes>
          <leafValues>
            -8.6619532108306885e-01 2.3287945985794067e-01</leafValues></_>
        <_>
          <internalNodes>
            0 -1 80 -4.1106189601123333e-03</internalNodes>
          <leafValues>
            3.6511361598968506e-01 -4.4840574264526367e-01</leafValues></_>
        <_>
          <internalNodes>
            0 -1 73 -3.3891624771058559e-03</internalNodes>
          <leafValues>
            -7.7055245637893677e-01 1.9694036245346069e-01</leafValues></_></weakClassifiers></_>
    <!-- stage 9 -->
    <_>
      <maxWeakCount>9</maxWeakCount>
      <stageThreshold>-5.7208657264709473e-01</stageThreshold>
      <weakClassifiers>
        <_>
          <internalNodes>
            0 -1 104 -5.8505600318312645e-03</internalNodes>
          <leafValues>
            6.9652652740478516e-01 -1.3084112107753754e-01</leafValues></_>
        <_>
          <internalNodes>
            0 -1 63 -6.1450763605535030e-03</internalNodes>
          <leafValues>
            6.5686929225921631e-01 -2.2754454612731934e-01</leafValues></_>
        <_>
          <internalNodes>
            0 -1 59 -1.0964272543787956e-02</internalNodes>
          <leafValues>
            -8.3991390466690063e-01 2.1527504920959473e-01</leafValues></_>
        <_>
          <internalNodes>
            0 -1 23 1.5301560051739216e-03</internalNodes>
          <leafValues>
            -3.1325295567512512e-01 5.5249923467636108e-01</leafValues></_>
        <_>
          <internalNodes>
            0 -1 21 6.4080860465764999e-03</internalNodes>
          <leafValues>
            -2.2449837625026703e-01 6.8324363231658936e-01</leafValues></_>
        <_>
          <internalNodes>
            0 -1 47 2.8050073888152838e-03</internalNodes>
          <leafValues>
            -2.2295156121253967e-01 6.4941757917404175e-01</leafValues></_>
        <_>
          <internalNodes>
            0 -1 62 -4.2304145172238350e-03</internalNodes>
          <leafValues>
            -8.3507531881332397e-01 1.9889245927333832e-01</leafValues></_>
        <_>
          <internalNodes>
            0 -1 13 -2.8910204768180847e-02</internalNodes>
          <leafValues>
            -8.1991660594940186e-01 1.2594164907932281e-01</leafValues></_>
        <_>
          <internalNodes>
            0 -1 42 -3.6526244133710861e-02</internalNodes>
          <leafValues>
            -8.3363425731658936e-01 1.3311859965324402e-01</leafValues></_></weakClassifiers></_>
    <!-- stage 10 -->
    <_>
      <maxWeakCount>8</maxWeakCount>
      <stageThreshold>-6.8532472848892212e-01</stageThreshold>
      <weakClassifiers>
        <_>
          <internalNodes>
            0 -1 79 -3.0871881172060966e-03</internalNodes>
          <leafValues>
            6.2776958942413330e-01 -3.3557048439979553e-01</leafValues></_>
        <_>
          <internalNodes>
            0 -1 33 -1.2683076784014702e-02</internalNodes>
          <leafValues>
            6.1032533645629883e-01 -3.4987315535545349e-01</leafValues></_>
        <_>
          <internalNodes>
            0 -1 64 2.6311950758099556e-02</internalNodes>
          <leafValues>
            -2.4225711822509766e-01 7.1805042028427124e-01</leafValues></_>
        <_>
          <internalNodes>
            0 -1 103 -6.3179718563333154e-04</internalNodes>
          <leafValues>
            5.0039428472518921e-01 -2.8753516077995300e-01</leafValues></_>
        <_>
          <internalNodes>
            0 -1 0 -3.3418253064155579e-02</internalNodes>
          <leafValues>
            6.0235404968261719e-01 -2.8430676460266113e-01</leafValues></_>
        <_>
          <internalNodes>
            0 -1 97 8.1607941538095474e-03</internalNodes>
          <leafValues>
            1.7525444924831390e-01 -8.2958793640136719e-01</leafValues></_>
        <_>
          <internalNodes>
            0 -1 49 -9.7850430756807327e-04</internalNodes>
          <leafValues>
            3.6720916628837585e-01 -3.8384088873863220e-01</leafValues></_>
        <_>
          <internalNodes>
            0 -1 20 -1.3009075773879886e-03</internalNodes>
          <leafValues>
            2.7940973639488220e-01 -5.5078589916229248e-01</leafValues></_></weakClassifiers></_>
    <!-- stage 11 -->
    <_>
      <maxWeakCount>10</maxWeakCount>
      <stageThreshold>-8.6678034067153931e-01</stageThreshold>
      <weakClassifiers>
        <_>
          <internalNodes>
            0 -1 96 1.4125913381576538e-02</internalNodes>
          <leafValues>
            -3.8790035247802734e-01 6.2536025047302246e-01</leafValues></_>
        <_>
          <internalNodes>
            0 -1 15 -1.0412509553134441e-02</internalNodes>
          <leafValues>
            5.2939641475677490e-01 -2.8183043003082275e-01</leafValues></_>
        <_>
          <internalNodes>
            0 -1 77 2.4402884300798178e-03</internalNodes>
          <leafValues>
            -3.4062346816062927e-01 4.3552479147911072e-01</leafValues></_>
        <_>
          <internalNodes>
            0 -1 67 1.1182547546923161e-02</internalNodes>
          <leafValues>
            1.8457497656345367e-01 -8.4198325872421265e-01</leafValues></_>
        <_>
          <internalNodes>
            0 -1 8 -6.3263783231377602e-03</internalNodes>
          <leafValues>
            6.4030569791793823e-01 -2.4231578409671783e-01</leafValues></_>
        <_>
          <internalNodes>
            0 -1 31 6.4653703011572361e-03</internalNodes>
          <leafValues>
            -4.6783226728439331e-01 3.5658046603202820e-01</leafValues></_>
        <_>
          <internalNodes>
            0 -1 51 -3.5968524753116071e-04</internalNodes>
          <leafValues>
            2.0501671731472015e-01 -8.3835530281066895e-01</leafValues></_>
        <_>
          <internalNodes>
            0 -1 102 -3.1994305551052094e-02</internalNodes>
          <leafValues>
            7.1726340055465698e-01 -2.3646636307239532e-01</leafValues></_>
        <_>
          <internalNodes>
            0 -1 94 -8.1273179966956377e-04</internalNodes>
          <leafValues>
            4.5358544588088989e-01 -3.2366129755973816e-01</leafValues></_>
        <_>
          <internalNodes>
            0 -1 86 2.0078197121620178e-03</internalNodes>
          <leafValues>
            2.1303109824657440e-01 -7.1132814884185791e-01</leafValues></_></weakClassifiers></_>
    <!-- stage 12 -->
    <_>
      <maxWeakCount>10</maxWeakCount>
      <stageThreshold>-6.7428839206695557e-01</stageThreshold>
      <weakClassifiers>
        <_>
          <internalNodes>
            0 -1 26 2.1818982437252998e-02</internalNodes>
          <leafValues>
            2.9508195817470551e-02 8.4109586477279663e-01</leafValues></_>
        <_>
          <internalNodes>
            0 -1 76 2.7578862383961678e-02</internalNodes>
          <leafValues>
            -1.4753039181232452e-01 7.6774281263351440e-01</leafValues></_>
        <_>
          <internalNodes>
            0 -1 68 9.6820574253797531e-03</internalNodes>
          <leafValues>
            2.4914877116680145e-01 -7.3013287782669067e-01</leafValues></_>
        <_>
          <internalNodes>
            0 -1 17 -1.0767738567665219e-03</internalNodes>
          <leafValues>
            3.0575928092002869e-01 -4.7674158215522766e-01</leafValues></_>
        <_>
          <internalNodes>
            0 -1 110 -1.1861660517752171e-02</internalNodes>
          <leafValues>
            8.7379086017608643e-01 -1.4676682651042938e-01</leafValues></_>
        <_>
          <internalNodes>
            0 -1 93 -6.2991492450237274e-03</internalNodes>
          <leafValues>
            -7.0607709884643555e-01 2.1869017183780670e-01</leafValues></_>
        <_>
          <internalNodes>
            0 -1 34 -1.2017446570098400e-03</internalNodes>
          <leafValues>
            4.7310727834701538e-01 -3.4643661975860596e-01</leafValues></_>
        <_>
          <internalNodes>
            0 -1 6 -9.0303132310509682e-03</internalNodes>
          <leafValues>
            7.1141344308853149e-01 -2.1098592877388000e-01</leafValues></_>
        <_>
          <internalNodes>
            0 -1 18 -1.0870808362960815e-01</internalNodes>
          <leafValues>
            -8.0479127168655396e-01 2.1085205674171448e-01</leafValues></_>
        <_>
          <internalNodes>
            0 -1 109 1.9840467721223831e-03</internalNodes>
          <leafValues>
            1.4275461435317993e-01 -7.6399487257003784e-01</leafValues></_></weakClassifiers></_>
    <!-- stage 13 -->
    <_>
      <maxWeakCount>9</maxWeakCount>
      <stageThreshold>-1.1248900890350342e+00</stageThreshold>
      <weakClassifiers>
        <_>
          <internalNodes>
            0 -1 70 -1.9272282719612122e-02</internalNodes>
          <leafValues>
            5.9264498949050903e-01 -3.5074627399444580e-01</leafValues></_>
        <_>
          <internalNodes>
            0 -1 54 -6.0425624251365662e-03</internalNodes>
          <leafValues>
            -8.2143181562423706e-01 2.4222873151302338e-01</leafValues></_>
        <_>
          <internalNodes>
            0 -1 52 6.6370344720780849e-03</internalNodes>
          <leafValues>
            -2.9775932431221008e-01 6.7527401447296143e-01</leafValues></_>
        <_>
          <internalNodes>
            0 -1 43 -2.5612032040953636e-03</internalNodes>
          <leafValues>
            4.7305169701576233e-01 -3.6617752909660339e-01</leafValues></_>
        <_>
          <internalNodes>
            0 -1 99 -3.4714303910732269e-02</internalNodes>
          <leafValues>
            5.5207633972167969e-01 -3.5345456004142761e-01</leafValues></_>
        <_>
          <internalNodes>
            0 -1 74 -1.7535068094730377e-02</internalNodes>
          <leafValues>
            -8.7197822332382202e-01 1.8583819270133972e-01</leafValues></_>
        <_>
          <internalNodes>
            0 -1 16 2.2853799164295197e-02</internalNodes>
          <leafValues>
            -2.0394493639469147e-01 8.8204824924468994e-01</leafValues></_>
        <_>
          <internalNodes>
            0 -1 41 2.9267161153256893e-03</internalNodes>
          <leafValues>
            -6.1183303594589233e-01 2.6824998855590820e-01</leafValues></_>
        <_>
          <internalNodes>
            0 -1 14 -4.1996948421001434e-03</internalNodes>
          <leafValues>
            5.9097331762313843e-01 -2.7457222342491150e-01</leafValues></_></weakClassifiers></_>
    <!-- stage 14 -->
    <_>
      <maxWeakCount>10</maxWeakCount>
      <stageThreshold>-8.8651168346405029e-01</stageThreshold>
      <weakClassifiers>
        <_>
          <internalNodes>
            0 -1 50 2.5626271963119507e-02</internalNodes>
          <leafValues>
            -4.3636362999677658e-02 8.2117646932601929e-01</leafValues></_>
        <_>
          <internalNodes>
            0 -1 88 9.0652974322438240e-03</internalNodes>
          <leafValues>
            -2.0360155403614044e-01 6.9029825925827026e-01</leafValues></_>
        <_>
          <internalNodes>
            0 -1 4 -8.5048479959368706e-03</internalNodes>
          <leafValues>
            5.3851914405822754e-01 -2.7147594094276428e-01</leafValues></_>
        <_>
          <internalNodes>
            0 -1 82 -4.1554011404514313e-03</internalNodes>
          <leafValues>
            -8.6783266067504883e-01 1.5233391523361206e-01</leafValues></_>
        <_>
          <internalNodes>
            0 -1 83 3.5857874900102615e-03</internalNodes>
          <leafValues>
            -3.6619651317596436e-01 3.8014665246009827e-01</leafValues></_>
        <_>
          <internalNodes>
            0 -1 106 -1.9978289492428303e-03</internalNodes>
          <leafValues>
            -5.9191298484802246e-01 2.6798489689826965e-01</leafValues></_>
        <_>
          <internalNodes>
            0 -1 75 -4.2986413463950157e-03</internalNodes>
          <leafValues>
            -7.7885937690734863e-01 1.3746070861816406e-01</leafValues></_>
        <_>
          <internalNodes>
            0 -1 46 -1.9850540906190872e-02</internalNodes>
          <leafValues>
            4.8488667607307434e-01 -2.9591041803359985e-01</leafValues></_>
        <_>
          <internalNodes>
            0 -1 44 -1.0647068265825510e-03</internalNodes>
          <leafValues>
            4.4403114914894104e-01 -3.8374027609825134e-01</leafValues></_>
        <_>
          <internalNodes>
            0 -1 29 -3.7681348621845245e-02</internalNodes>
          <leafValues>
            -8.1642192602157593e-01 1.7481654882431030e-01</leafValues></_></weakClassifiers></_></stages>
  <features>
    <_>
      <rects>
        <_>
          0 0 20 1 -1.</_>
        <_>
          10 0 10 1 2.</_></rects>
      <tilted>0</tilted></_>
    <_>
      <rects>
        <_>
          0 5 6 9 -1.</_>
        <_>
          2 5 2 9 3.</_></rects>
      <tilted>0</tilted></_>
    <_>
      <rects>
        <_>
          0 6 3 5 -1.</_>
        <_>
          1 6 1 5 3.</_></rects>
      <tilted>0</tilted></_>
    <_>
      <rects>
        <_>
          0 6 2 11 -1.</_>
        <_>
          1 6 1 11 2.</_></rects>
      <tilted>0</tilted></_>
    <_>
      <rects>
        <_>
          0 7 3 6 -1.</_>
        <_>
          1 7 1 6 3.</_></rects>
      <tilted>0</tilted></_>
    <_>
      <rects>
        <_>
          0 8 3 2 -1.</_>
        <_>
          1 8 1 2 3.</_></rects>
      <tilted>0</tilted></_>
    <_>
      <rects>
        <_>
          1 4 2 8 -1.</_>
        <_>
          1 4 1 4 2.</_>
        <_>
          2 8 1 4 2.</_></rects>
      <tilted>0</tilted></_>
    <_>
      <rects>
        <_>
          1 5 3 4 -1.</_>
        <_>
          2 5 1 4 3.</_></rects>
      <tilted>0</tilted></_>
    <_>
      <rects>
        <_>
          1 8 3 5 -1.</_>
        <_>
          2 8 1 5 3.</_></rects>
      <tilted>0</tilted></_>
    <_>
      <rects>
        <_>
          1 8 6 4 -1.</_>
        <_>
          4 8 3 4 2.</_></rects>
      <tilted>0</tilted></_>
    <_>
      <rects>
        <_>
          2 5 6 6 -1.</_>
        <_>
          5 5 3 6 2.</_></rects>
      <tilted>0</tilted></_>
    <_>
      <rects>
        <_>
          2 6 9 2 -1.</_>
        <_>
          5 6 3 2 3.</_></rects>
      <tilted>0</tilted></_>
    <_>
      <rects>
        <_>
          2 7 3 3 -1.</_>
        <_>
          3 7 1 3 3.</_></rects>
      <tilted>0</tilted></_>
    <_>
      <rects>
        <_>
          2 7 15 2 -1.</_>
        <_>
          7 7 5 2 3.</_></rects>
      <tilted>0</tilted></_>
    <_>
      <rects>
        <_>
          2 8 2 6 -1.</_>
        <_>
          2 8 1 3 2.</_>
        <_>
          3 11 1 3 2.</_></rects>
      <tilted>0</tilted></_>
    <_>
      <rects>
        <_>
          2 11 2 6 -1.</_>
        <_>
          2 14 2 3 2.</_></rects>
      <tilted>0</tilted></_>
    <_>
      <rects>
        <_>
          2 13 6 4 -1.</_>
        <_>
          2 13 3 2 2.</_>
        <_>
          5 15 3 2 2.</_></rects>
      <tilted>0</tilted></_>
    <_>
      <rects>
        <_>
          2 15 6 2 -1.</_>
        <_>
          2 15 3 1 2.</_>
        <_>
          5 16 3 1 2.</_></rects>
      <tilted>0</tilted></_>
    <_>
      <rects>
        <_>
          3 4 14 14 -1.</_>
        <_>
          3 4 7 7 2.</_>
        <_>
          10 11 7 7 2.</_></rects>
      <tilted>0</tilted></_>
    <_>
      <rects>
        <_>
          3 5 6 9 -1.</_>
        <_>
          5 5 2 9 3.</_></rects>
      <tilted>0</tilted></_>
    <_>
      <rects>
        <_>
          3 5 6 1 -1.</_>
        <_>
          6 5 3 1 2.</_></rects>
      <tilted>0</tilted></_>
    <_>
      <rects>
        <_>
          3 8 2 6 -1.</_>
        <_>
          3 8 1 3 2.</_>
        <_>
          4 11 1 3 2.</_></rects>
      <tilted>0</tilted></_>
    <_>
      <rects>
        <_>
          3 10 2 4 -1.</_>
        <_>
          3 10 1 2 2.</_>
        <_>
          4 12 1 2 2.</_></rects>
      <tilted>0</tilted></_>
    <_>
      <rects>
        <_>
          3 13 2 2 -1.</_>
        <_>
          3 13 1 1 2.</_>
        <_>
          4 14 1 1 2.</_></rects>
      <tilted>0</tilted></_>
    <_>
      <rects>
        <_>
          3 14 3 1 -1.</_>
        <_>
          4 14 1 1 3.</_></rects>
      <tilted>0</tilted></_>
    <_>
      <rects>
        <_>
          3 14 2 2 -1.</_>
        <_>
          3 15 2 1 2.</_></rects>
      <tilted>0</tilted></_>
    <_>
      <rects>
        <_>
          3 14 10 4 -1.</_>
        <_>
          3 14 5 2 2.</_>
        <_>
          8 16 5 2 2.</_></rects>
      <tilted>0</tilted></_>
    <_>
      <rects>
        <_>
          4 2 7 3 -1.</_>
        <_>
          4 3 7 1 3.</_></rects>
      <tilted>0</tilted></_>
    <_>
      <rects>
        <_>
          4 2 11 2 -1.</_>
        <_>
          4 3 11 1 2.</_></rects>
      <tilted>0</tilted></_>
    <_>
      <rects>
        <_>
          4 3 2 14 -1.</_>
        <_>
          4 10 2 7 2.</_></rects>
      <tilted>0</tilted></_>
    <_>
      <rects>
        <_>
          4 4 6 2 -1.</_>
        <_>
          7 4 3 2 2.</_></rects>
      <tilted>0</tilted></_>
    <_>
      <rects>
        <_>
          4 7 9 3 -1.</_>
        <_>
          7 7 3 3 3.</_></rects>
      <tilted>0</tilted></_>
    <_>
      <rects>
        <_>
          4 10 4 9 -1.</_>
        <_>
          4 13 4 3 3.</_></rects>
      <tilted>0</tilted></_>
    <_>
      <rects>
        <_>
          4 13 3 6 -1.</_>
        <_>
          4 16 3 3 2.</_></rects>
      <tilted>0</tilted></_>
    <_>
      <rects>
        <_>
          4 14 1 2 -1.</_>
        <_>
          4 15 1 1 2.</_></rects>
      <tilted>0</tilted></_>
    <_>
      <rects>
        <_>
          5 1 11 6 -1.</_>
        <_>
          5 3 11 2 3.</_></rects>
      <tilted>0</tilted></_>
    <_>
      <rects>
        <_>
          5 2 6 2 -1.</_>
        <_>
          5 3 6 1 2.</_></rects>
      <tilted>0</tilted></_>
    <_>
      <rects>
        <_>
          5 3 9 9 -1.</_>
        <_>
          8 3 3 9 3.</_></rects>
      <tilted>0</tilted></_>
    <_>
      <rects>
        <_>
          5 3 10 3 -1.</_>
        <_>
          10 3 5 3 2.</_></rects>
      <tilted>0</tilted></_>
    <_>
      <rects>
        <_>
          5 3 12 8 -1.</_>
        <_>
          11 3 6 8 2.</_></rects>
      <tilted>0</tilted></_>
    <_>
      <rects>
        <_>
          5 4 6 4 -1.</_>
        <_>
          5 4 3 2 2.</_>
        <_>
          8 6 3 2 2.</_></rects>
      <tilted>0</tilted></_>
    <_>
      <rects>
        <_>
          5 6 9 5 -1.</_>
        <_>
          8 6 3 5 3.</_></rects>
      <tilted>0</tilted></_>
    <_>
      <rects>
        <_>
          5 9 4 10 -1.</_>
        <_>
          5 14 4 5 2.</_></rects>
      <tilted>0</tilted></_>
    <_>
      <rects>
        <_>
          5 15 3 2 -1.</_>
        <_>
          5 16 3 1 2.</_></rects>
      <tilted>0</tilted></_>
    <_>
      <rects>
        <_>
          5 16 4 2 -1.</_>
        <_>
          5 16 2 1 2.</_>
        <_>
          7 17 2 1 2.</_></rects>
      <tilted>0</tilted></_>
    <_>
      <rects>
        <_>
          6 2 6 6 -1.</_>
        <_>
          9 2 3 6 2.</_></rects>
      <tilted>0</tilted></_>
    <_>
      <rects>
        <_>
          6 2 7 6 -1.</_>
        <_>
          6 4 7 2 3.</_></rects>
      <tilted>0</tilted></_>
    <_>
      <rects>
        <_>
          6 3 1 3 -1.</_>
        <_>
          6 4 1 1 3.</_></rects>
      <tilted>0</tilted></_>
    <_>
      <rects>
        <_>
          6 9 12 2 -1.</_>
        <_>
          12 9 6 2 2.</_></rects>
      <tilted>0</tilted></_>
    <_>
      <rects>
        <_>
          6 17 6 3 -1.</_>
        <_>
          6 18 6 1 3.</_></rects>
      <tilted>0</tilted></_>
    <_>
      <rects>
        <_>
          7 0 7 4 -1.</_>
        <_>
          7 2 7 2 2.</_></rects>
      <tilted>0</tilted></_>
    <_>
      <rects>
        <_>
          7 2 1 8 -1.</_>
        <_>
          7 6 1 4 2.</_></rects>
      <tilted>0</tilted></_>
    <_>
      <rects>
        <_>
          7 2 2 3 -1.</_>
        <_>
          7 3 2 1 3.</_></rects>
      <tilted>0</tilted></_>
    <_>
      <rects>
        <_>
          7 2 7 3 -1.</_>
        <_>
          7 3 7 1 3.</_></rects>
      <tilted>0</tilted></_>
    <_>
      <rects>
        <_>
          7 3 4 2 -1.</_>
        <_>
          9 3 2 2 2.</_></rects>
      <tilted>0</tilted></_>
    <_>
      <rects>
        <_>
          7 3 3 6 -1.</_>
        <_>
          7 5 3 2 3.</_></rects>
      <tilted>0</tilted></_>
    <_>
      <rects>
        <_>
          7 3 4 6 -1.</_>
        <_>
          7 5 4 2 3.</_></rects>
      <tilted>0</tilted></_>
    <_>
      <rects>
        <_>
          7 3 8 8 -1.</_>
        <_>
          7 3 4 4 2.</_>
        <_>
          11 7 4 4 2.</_></rects>
      <tilted>0</tilted></_>
    <_>
      <rects>
        <_>
          7 3 6 2 -1.</_>
        <_>
          7 4 6 1 2.</_></rects>
      <tilted>0</tilted></_>
    <_>
      <rects>
        <_>
          7 5 10 2 -1.</_>
        <_>
          12 5 5 2 2.</_></rects>
      <tilted>0</tilted></_>
    <_>
      <rects>
        <_>
          7 13 1 6 -1.</_>
        <_>
          7 15 1 2 3.</_></rects>
      <tilted>0</tilted></_>
    <_>
      <rects>
        <_>
          7 16 2 2 -1.</_>
        <_>
          7 17 2 1 2.</_></rects>
      <tilted>0</tilted></_>
    <_>
      <rects>
        <_>
          8 0 3 3 -1.</_>
        <_>
          9 0 1 3 3.</_></rects>
      <tilted>0</tilted></_>
    <_>
      <rects>
        <_>
          8 0 3 3 -1.</_>
        <_>
          8 1 3 1 3.</_></rects>
      <tilted>0</tilted></_>
    <_>
      <rects>
        <_>
          8 0 6 4 -1.</_>
        <_>
          8 2 6 2 2.</_></rects>
      <tilted>0</tilted></_>
    <_>
      <rects>
        <_>
          8 1 2 3 -1.</_>
        <_>
          8 2 2 1 3.</_></rects>
      <tilted>0</tilted></_>
    <_>
      <rects>
        <_>
          8 1 6 3 -1.</_>
        <_>
          8 2 6 1 3.</_></rects>
      <tilted>0</tilted></_>
    <_>
      <rects>
        <_>
          8 2 6 4 -1.</_>
        <_>
          10 2 2 4 3.</_></rects>
      <tilted>0</tilted></_>
    <_>
      <rects>
        <_>
          8 3 6 6 -1.</_>
        <_>
          11 3 3 6 2.</_></rects>
      <tilted>0</tilted></_>
    <_>
      <rects>
        <_>
          8 7 9 4 -1.</_>
        <_>
          11 7 3 4 3.</_></rects>
      <tilted>0</tilted></_>
    <_>
      <rects>
        <_>
          8 8 9 5 -1.</_>
        <_>
          11 8 3 5 3.</_></rects>
      <tilted>0</tilted></_>
    <_>
      <rects>
        <_>
          8 14 3 3 -1.</_>
        <_>
          8 15 3 1 3.</_></rects>
      <tilted>0</tilted></_>
    <_>
      <rects>
        <_>
          8 15 1 3 -1.</_>
        <_>
          8 16 1 1 3.</_></rects>
      <tilted>0</tilted></_>
    <_>
      <rects>
        <_>
          9 0 3 4 -1.</_>
        <_>
          10 0 1 4 3.</_></rects>
      <tilted>0</tilted></_>
    <_>
      <rects>
        <_>
          9 1 6 5 -1.</_>
        <_>
          11 1 2 5 3.</_></rects>
      <tilted>0</tilted></_>
    <_>
      <rects>
        <_>
          10 0 3 4 -1.</_>
        <_>
          11 0 1 4 3.</_></rects>
      <tilted>0</tilted></_>
    <_>
      <rects>
        <_>
          10 0 3 6 -1.</_>
        <_>
          10 2 3 2 3.</_></rects>
      <tilted>0</tilted></_>
    <_>
      <rects>
        <_>
          10 2 1 3 -1.</_>
        <_>
          10 3 1 1 3.</_></rects>
      <tilted>0</tilted></_>
    <_>
      <rects>
        <_>
          10 5 3 6 -1.</_>
        <_>
          10 8 3 3 2.</_></rects>
      <tilted>0</tilted></_>
    <_>
      <rects>
        <_>
          10 6 6 2 -1.</_>
        <_>
          12 6 2 2 3.</_></rects>
      <tilted>0</tilted></_>
    <_>
      <rects>
        <_>
          11 2 8 1 -1.</_>
        <_>
          15 2 4 1 2.</_></rects>
      <tilted>0</tilted></_>
    <_>
      <rects>
        <_>
          11 10 6 8 -1.</_>
        <_>
          11 10 3 4 2.</_>
        <_>
          14 14 3 4 2.</_></rects>
      <tilted>0</tilted></_>
    <_>
      <rects>
        <_>
          12 1 3 3 -1.</_>
        <_>
          13 1 1 3 3.</_></rects>
      <tilted>0</tilted></_>
    <_>
      <rects>
        <_>
          12 5 6 1 -1.</_>
        <_>
          14 5 2 1 3.</_></rects>
      <tilted>0</tilted></_>
    <_>
      <rects>
        <_>
          13 2 4 6 -1.</_>
        <_>
          13 2 2 3 2.</_>
        <_>
          15 5 2 3 2.</_></rects>
      <tilted>0</tilted></_>
    <_>
      <rects>
        <_>
          13 4 3 8 -1.</_>
        <_>
          13 8 3 4 2.</_></rects>
      <tilted>0</tilted></_>
    <_>
      <rects>
        <_>
          13 5 6 6 -1.</_>
        <_>
          13 8 6 3 2.</_></rects>
      <tilted>0</tilted></_>
    <_>
      <rects>
        <_>
          13 9 6 4 -1.</_>
        <_>
          15 9 2 4 3.</_></rects>
      <tilted>0</tilted></_>
    <_>
      <rects>
        <_>
          13 11 6 1 -1.</_>
        <_>
          15 11 2 1 3.</_></rects>
      <tilted>0</tilted></_>
    <_>
      <rects>
        <_>
          14 6 3 1 -1.</_>
        <_>
          15 6 1 1 3.</_></rects>
      <tilted>0</tilted></_>
    <_>
      <rects>
        <_>
          14 7 3 1 -1.</_>
        <_>
          15 7 1 1 3.</_></rects>
      <tilted>0</tilted></_>
    <_>
      <rects>
        <_>
          14 9 6 3 -1.</_>
        <_>
          16 9 2 3 3.</_></rects>
      <tilted>0</tilted></_>
    <_>
      <rects>
        <_>
          14 10 6 1 -1.</_>
        <_>
          16 10 2 1 3.</_></rects>
      <tilted>0</tilted></_>
    <_>
      <rects>
        <_>
          15 4 2 6 -1.</_>
        <_>
          15 6 2 2 3.</_></rects>
      <tilted>0</tilted></_>
    <_>
      <rects>
        <_>
          15 6 2 1 -1.</_>
        <_>
          16 6 1 1 2.</_></rects>
      <tilted>0</tilted></_>
    <_>
      <rects>
        <_>
          15 12 4 2 -1.</_>
        <_>
          15 12 2 1 2.</_>
        <_>
          17 13 2 1 2.</_></rects>
      <tilted>0</tilted></_>
    <_>
      <rects>
        <_>
          16 3 2 15 -1.</_>
        <_>
          16 8 2 5 3.</_></rects>
      <tilted>0</tilted></_>
    <_>
      <rects>
        <_>
          16 7 2 6 -1.</_>
        <_>
          16 10 2 3 2.</_></rects>
      <tilted>0</tilted></_>
    <_>
      <rects>
        <_>
          16 8 1 10 -1.</_>
        <_>
          16 13 1 5 2.</_></rects>
      <tilted>0</tilted></_>
    <_>
      <rects>
        <_>
          16 8 4 8 -1.</_>
        <_>
          18 8 2 8 2.</_></rects>
      <tilted>0</tilted></_>
    <_>
      <rects>
        <_>
          16 9 4 1 -1.</_>
        <_>
          18 9 2 1 2.</_></rects>
      <tilted>0</tilted></_>
    <_>
      <rects>
        <_>
          16 9 4 3 -1.</_>
        <_>
          18 9 2 3 2.</_></rects>
      <tilted>0</tilted></_>
    <_>
      <rects>
        <_>
          16 9 4 4 -1.</_>
        <_>
          18 9 2 4 2.</_></rects>
      <tilted>0</tilted></_>
    <_>
      <rects>
        <_>
          16 10 2 2 -1.</_>
        <_>
          16 10 1 1 2.</_>
        <_>
          17 11 1 1 2.</_></rects>
      <tilted>0</tilted></_>
    <_>
      <rects>
        <_>
          16 10 4 1 -1.</_>
        <_>
          18 10 2 1 2.</_></rects>
      <tilted>0</tilted></_>
    <_>
      <rects>
        <_>
          16 10 4 2 -1.</_>
        <_>
          18 10 2 2 2.</_></rects>
      <tilted>0</tilted></_>
    <_>
      <rects>
        <_>
          17 2 3 4 -1.</_>
        <_>
          18 2 1 4 3.</_></rects>
      <tilted>0</tilted></_>
    <_>
      <rects>
        <_>
          17 10 2 1 -1.</_>
        <_>
          18 10 1 1 2.</_></rects>
      <tilted>0</tilted></_>
    <_>
      <rects>
        <_>
          17 10 2 4 -1.</_>
        <_>
          17 10 1 2 2.</_>
        <_>
          18 12 1 2 2.</_></rects>
      <tilted>0</tilted></_>
    <_>
      <rects>
        <_>
          17 15 3 3 -1.</_>
        <_>
          17 16 3 1 3.</_></rects>
      <tilted>0</tilted></_>
    <_>
      <rects>
        <_>
          18 6 2 4 -1.</_>
        <_>
          19 6 1 4 2.</_></rects>
      <tilted>0</tilted></_></features></cascade>
</opencv_storage>
