<?xml version="1.0"?>
<opencv_storage>
<cascade>
  <stageType>BOOST</stageType>
  <featureType>HAAR</featureType>
  <height>20</height>
  <width>20</width>
  <stageParams>
    <boostType>GAB</boostType>
    <minHitRate>9.9500000476837158e-01</minHitRate>
    <maxFalseAlarm>5.0000000000000000e-01</maxFalseAlarm>
    <weightTrimRate>9.4999999999999996e-01</weightTrimRate>
    <maxDepth>1</maxDepth>
    <maxWeakCount>100</maxWeakCount></stageParams>
  <featureParams>
    <maxCatCount>0</maxCatCount>
    <featSize>1</featSize>
    <mode>BASIC</mode></featureParams>
  <stageNum>9</stageNum>
  <stages>
    <!-- stage 0 -->
    <_>
      <maxWeakCount>4</maxWeakCount>
      <stageThreshold>-4.7790646553039551e-01</stageThreshold>
      <weakClassifiers>
        <_>
          <internalNodes>
            0 -1 45 8.8701397180557251e-03</internalNodes>
          <leafValues>
            -4.1596639156341553e-01 9.5470380783081055e-01</leafValues></_>
        <_>
          <internalNodes>
            0 -1 27 -6.0663959011435509e-03</internalNodes>
          <leafValues>
            7.6822817325592041e-01 -4.2758581042289734e-01</leafValues></_>
        <_>
          <internalNodes>
            0 -1 49 4.7073308378458023e-03</internalNodes>
          <leafValues>
            -3.7610739469528198e-01 9.5878416299819946e-01</leafValues></_>
        <_>
          <internalNodes>
            0 -1 9 -1.5370157547295094e-02</internalNodes>
          <leafValues>
            7.7604526281356812e-01 -4.5406085252761841e-01</leafValues></_></weakClassifiers></_>
    <!-- stage 1 -->
    <_>
      <maxWeakCount>5</maxWeakCount>
      <stageThreshold>-8.6422395706176758e-01</stageThreshold>
      <weakClassifiers>
        <_>
          <internalNodes>
            0 -1 56 -1.1232448741793633e-03</internalNodes>
          <leafValues>
            8.8828825950622559e-01 -4.0000000596046448e-01</leafValues></_>
        <_>
          <internalNodes>
            0 -1 39 1.7333240248262882e-03</internalNodes>
          <leafValues>
            -2.9318222403526306e-01 8.3870011568069458e-01</leafValues></_>
        <_>
          <internalNodes>
            0 -1 35 -6.7087169736623764e-03</internalNodes>
          <leafValues>
            6.0134786367416382e-01 -5.8183842897415161e-01</leafValues></_>
        <_>
          <internalNodes>
            0 -1 1 -5.1994184032082558e-03</internalNodes>
          <leafValues>
            7.7058249711990356e-01 -4.2834904789924622e-01</leafValues></_>
        <_>
          <internalNodes>
            0 -1 50 2.1954132243990898e-03</internalNodes>
          <leafValues>
            -3.4404057264328003e-01 8.5194051265716553e-01</leafValues></_></weakClassifiers></_>
    <!-- stage 2 -->
    <_>
      <maxWeakCount>5</maxWeakCount>
      <stageThreshold>-4.1163605451583862e-01</stageThreshold>
      <weakClassifiers>
        <_>
          <internalNodes>
            0 -1 48 1.0961786843836308e-02</internalNodes>
          <leafValues>
            -3.5609754920005798e-01 8.3362829685211182e-01</leafValues></_>
        <_>
          <internalNodes>
            0 -1 26 8.8599324226379395e-03</internalNodes>
          <leafValues>
            -3.2767295837402344e-01 8.8542705774307251e-01</leafValues></_>
        <_>
          <internalNodes>
            0 -1 8 4.0442757308483124e-03</internalNodes>
          <leafValues>
            -2.7657428383827209e-01 8.8801330327987671e-01</leafValues></_>
        <_>
          <internalNodes>
            0 -1 4 6.0397256165742874e-03</internalNodes>
          <leafValues>
            -3.3160337805747986e-01 8.8407683372497559e-01</leafValues></_>
        <_>
          <internalNodes>
            0 -1 37 1.3462735805660486e-03</internalNodes>
          <leafValues>
            -2.8427544236183167e-01 8.8727170228958130e-01</leafValues></_></weakClassifiers></_>
    <!-- stage 3 -->
    <_>
      <maxWeakCount>6</maxWeakCount>
      <stageThreshold>-7.2107732295989990e-01</stageThreshold>
      <weakClassifiers>
        <_>
          <internalNodes>
            0 -1 44 -8.4611177444458008e-03</internalNodes>
          <leafValues>
            6.8592590093612671e-01 -4.6000000834465027e-01</leafValues></_>
        <_>
          <internalNodes>
            0 -1 22 9.7146874759346247e-04</internalNodes>
          <leafValues>
            -6.5378439426422119e-01 4.8925897479057312e-01</leafValues></_>
        <_>
          <internalNodes>
            0 -1 53 -1.4306176453828812e-02</internalNodes>
          <leafValues>
            6.6284561157226562e-01 -4.7216990590095520e-01</leafValues></_>
        <_>
          <internalNodes>
            0 -1 39 2.4320576339960098e-03</internalNodes>
          <leafValues>
            -3.5025539994239807e-01 7.2820150852203369e-01</leafValues></_>
        <_>
          <internalNodes>
            0 -1 5 -5.1427348516881466e-03</internalNodes>
          <leafValues>
            4.5008963346481323e-01 -6.7851579189300537e-01</leafValues></_>
        <_>
          <internalNodes>
            0 -1 32 -2.5168396532535553e-03</internalNodes>
          <leafValues>
            7.6504278182983398e-01 -3.2406893372535706e-01</leafValues></_></weakClassifiers></_>
    <!-- stage 4 -->
    <_>
      <maxWeakCount>7</maxWeakCount>
      <stageThreshold>-1.0038303136825562e+00</stageThreshold>
      <weakClassifiers>
        <_>
          <internalNodes>
            0 -1 43 1.0485821403563023e-02</internalNodes>
          <leafValues>
            -1.8383838236331940e-01 8.6666667461395264e-01</leafValues></_>
        <_>
          <internalNodes>
            0 -1 12 -1.6923467628657818e-03</internalNodes>
          <leafValues>
            7.5465744733810425e-01 -3.1145688891410828e-01</leafValues></_>
        <_>
          <internalNodes>
            0 -1 13 7.4689276516437531e-03</internalNodes>
          <leafValues>
            -3.5110926628112793e-01 6.7167985439300537e-01</leafValues></_>
        <_>
          <internalNodes>
            0 -1 47 2.3048529401421547e-03</internalNodes>
          <leafValues>
            -2.7003955841064453e-01 9.2612749338150024e-01</leafValues></_>
        <_>
          <internalNodes>
            0 -1 54 -6.7065411712974310e-04</internalNodes>
          <leafValues>
            6.3805246353149414e-01 -2.9722553491592407e-01</leafValues></_>
        <_>
          <internalNodes>
            0 -1 8 6.0333511792123318e-03</internalNodes>
          <leafValues>
            -3.1779834628105164e-01 7.5016754865646362e-01</leafValues></_>
        <_>
          <internalNodes>
            0 -1 11 1.4313161373138428e-03</internalNodes>
          <leafValues>
            -2.6614904403686523e-01 7.2763764858245850e-01</leafValues></_></weakClassifiers></_>
    <!-- stage 5 -->
    <_>
      <maxWeakCount>8</maxWeakCount>
      <stageThreshold>-9.4589948654174805e-01</stageThreshold>
      <weakClassifiers>
        <_>
          <internalNodes>
            0 -1 17 3.2497122883796692e-02</internalNodes>
          <leafValues>
            -1.6844350099563599e-01 7.9841899871826172e-01</leafValues></_>
        <_>
          <internalNodes>
            0 -1 16 1.9671138375997543e-02</internalNodes>
          <leafValues>
            -2.5647360086441040e-01 7.6661610603332520e-01</leafValues></_>
        <_>
          <internalNodes>
            0 -1 55 -1.5076078474521637e-02</internalNodes>
          <leafValues>
            7.9557412862777710e-01 -2.5812664628028870e-01</leafValues></_>
        <_>
          <internalNodes>
            0 -1 10 -1.6525249229744077e-03</internalNodes>
          <leafValues>
            6.6336148977279663e-01 -2.9110661149024963e-01</leafValues></_>
        <_>
          <internalNodes>
            0 -1 20 -2.4051971733570099e-02</internalNodes>
          <leafValues>
            -8.2781952619552612e-01 2.5390455126762390e-01</leafValues></_>
        <_>
          <internalNodes>
            0 -1 15 -7.3610819526948035e-05</internalNodes>
          <leafValues>
            2.5338113307952881e-01 -6.6935157775878906e-01</leafValues></_>
        <_>
          <internalNodes>
            0 -1 19 -1.5232043340802193e-02</internalNodes>
          <leafValues>
            -8.1023043394088745e-01 2.3035457730293274e-01</leafValues></_>
        <_>
          <internalNodes>
            0 -1 25 -2.1776957437396049e-03</internalNodes>
          <leafValues>
            2.5294101238250732e-01 -7.0938938856124878e-01</leafValues></_></weakClassifiers></_>
    <!-- stage 6 -->
    <_>
      <maxWeakCount>8</maxWeakCount>
      <stageThreshold>-7.9590290784835815e-01</stageThreshold>
      <weakClassifiers>
        <_>
          <internalNodes>
            0 -1 52 -3.2236939296126366e-03</internalNodes>
          <leafValues>
            7.1617162227630615e-01 -2.9539296030998230e-01</leafValues></_>
        <_>
          <internalNodes>
            0 -1 28 -1.2561379000544548e-02</internalNodes>
          <leafValues>
            5.7837384939193726e-01 -4.0842935442924500e-01</leafValues></_>
        <_>
          <internalNodes>
            0 -1 23 1.4874426648020744e-02</internalNodes>
          <leafValues>
            2.6432630419731140e-01 -8.0532610416412354e-01</leafValues></_>
        <_>
          <internalNodes>
            0 -1 31 6.4625567756593227e-03</internalNodes>
          <leafValues>
            -3.2151311635971069e-01 6.8659526109695435e-01</leafValues></_>
        <_>
          <internalNodes>
            0 -1 2 -1.2478609569370747e-02</internalNodes>
          <leafValues>
            6.4352947473526001e-01 -3.3566087484359741e-01</leafValues></_>
        <_>
          <internalNodes>
            0 -1 0 4.6254448592662811e-02</internalNodes>
          <leafValues>
            -1.7957547307014465e-01 7.7218139171600342e-01</leafValues></_>
        <_>
          <internalNodes>
            0 -1 29 9.6563417464494705e-03</internalNodes>
          <leafValues>
            2.1085271239280701e-01 -8.8290709257125854e-01</leafValues></_>
        <_>
          <internalNodes>
            0 -1 7 -2.8616688214242458e-03</internalNodes>
          <leafValues>
            2.6948982477188110e-01 -6.1913537979125977e-01</leafValues></_></weakClassifiers></_>
    <!-- stage 7 -->
    <_>
      <maxWeakCount>9</maxWeakCount>
      <stageThreshold>-6.8376445770263672e-01</stageThreshold>
      <weakClassifiers>
        <_>
          <internalNodes>
            0 -1 51 -1.2600028887391090e-02</internalNodes>
          <leafValues>
            7.0081299543380737e-01 -2.9444444179534912e-01</leafValues></_>
        <_>
          <internalNodes>
            0 -1 30 -8.1843687221407890e-03</internalNodes>
          <leafValues>
            6.4965796470642090e-01 -2.9277184605598450e-01</leafValues></_>
        <_>
          <internalNodes>
            0 -1 3 -6.0792583972215652e-03</internalNodes>
          <leafValues>
            7.8780215978622437e-01 -2.7575561404228210e-01</leafValues></_>
        <_>
          <internalNodes>
            0 -1 18 6.0270731337368488e-03</internalNodes>
          <leafValues>
            -2.7556183934211731e-01 6.2482899427413940e-01</leafValues></_>
        <_>
          <internalNodes>
            0 -1 36 -3.9050737395882607e-03</internalNodes>
          <leafValues>
            7.0448327064514160e-01 -2.6089492440223694e-01</leafValues></_>
        <_>
          <internalNodes>
            0 -1 57 2.1483467426151037e-03</internalNodes>
          <leafValues>
            -3.0821695923805237e-01 5.1911258697509766e-01</leafValues></_>
        <_>
          <internalNodes>
            0 -1 6 -1.6168232541531324e-03</internalNodes>
          <leafValues>
            2.3754434287548065e-01 -7.8827619552612305e-01</leafValues></_>
        <_>
          <internalNodes>
            0 -1 46 2.4390316102653742e-03</internalNodes>
          <leafValues>
            -2.6316913962364197e-01 6.8806529045104980e-01</leafValues></_>
        <_>
          <internalNodes>
            0 -1 40 3.1819015275686979e-03</internalNodes>
          <leafValues>
            2.2217644751071930e-01 -8.7481248378753662e-01</leafValues></_></weakClassifiers></_>
    <!-- stage 8 -->
    <_>
      <maxWeakCount>9</maxWeakCount>
      <stageThreshold>-6.0622882843017578e-01</stageThreshold>
      <weakClassifiers>
        <_>
          <internalNodes>
            0 -1 42 -1.0913860984146595e-02</internalNodes>
          <leafValues>
            6.5496182441711426e-01 -3.2499998807907104e-01</leafValues></_>
        <_>
          <internalNodes>
            0 -1 14 9.8672294989228249e-03</internalNodes>
          <leafValues>
            -2.2666233777999878e-01 7.0384818315505981e-01</leafValues></_>
        <_>
          <internalNodes>
            0 -1 21 5.6613020598888397e-02</internalNodes>
          <leafValues>
            2.3634062707424164e-01 -7.3301899433135986e-01</leafValues></_>
        <_>
          <internalNodes>
            0 -1 33 4.6577290631830692e-03</internalNodes>
          <leafValues>
            -2.6582804322242737e-01 6.8366777896881104e-01</leafValues></_>
        <_>
          <internalNodes>
            0 -1 3 -5.5297752842307091e-03</internalNodes>
          <leafValues>
            5.6569123268127441e-01 -2.8625050187110901e-01</leafValues></_>
        <_>
          <internalNodes>
            0 -1 34 -5.8753443881869316e-03</internalNodes>
          <leafValues>
            5.8850753307342529e-01 -2.9909795522689819e-01</leafValues></_>
        <_>
          <internalNodes>
            0 -1 24 -1.6975753009319305e-02</internalNodes>
          <leafValues>
            -8.6619532108306885e-01 2.3287945985794067e-01</leafValues></_>
        <_>
          <internalNodes>
            0 -1 41 -4.1106189601123333e-03</internalNodes>
          <leafValues>
            3.6511361598968506e-01 -4.4840574264526367e-01</leafValues></_>
        <_>
          <internalNodes>
            0 -1 38 -3.3891624771058559e-03</internalNodes>
          <leafValues>
            -7.7055245637893677e-01 1.9694036245346069e-01</leafValues></_></weakClassifiers></_></stages>
  <features>
    <_>
      <rects>
        <_>
          0 5 6 9 -1.</_>
        <_>
          2 5 2 9 3.</_></rects>
      <tilted>0</tilted></_>
    <_>
      <rects>
        <_>
          0 6 3 5 -1.</_>
        <_>
          1 6 1 5 3.</_></rects>
      <tilted>0</tilted></_>
    <_>
      <rects>
        <_>
          0 6 2 11 -1.</_>
        <_>
          1 6 1 11 2.</_></rects>
      <tilted>0</tilted></_>
    <_>
      <rects>
        <_>
          0 8 3 2 -1.</_>
        <_>
          1 8 1 2 3.</_></rects>
      <tilted>0</tilted></_>
    <_>
      <rects>
        <_>
          1 5 3 4 -1.</_>
        <_>
          2 5 1 4 3.</_></rects>
      <tilted>0</tilted></_>
    <_>
      <rects>
        <_>
          1 8 6 4 -1.</_>
        <_>
          4 8 3 4 2.</_></rects>
      <tilted>0</tilted></_>
    <_>
      <rects>
        <_>
          2 5 6 6 -1.</_>
        <_>
          5 5 3 6 2.</_></rects>
      <tilted>0</tilted></_>
    <_>
      <rects>
        <_>
          2 6 9 2 -1.</_>
        <_>
          5 6 3 2 3.</_></rects>
      <tilted>0</tilted></_>
    <_>
      <rects>
        <_>
          2 7 3 3 -1.</_>
        <_>
          3 7 1 3 3.</_></rects>
      <tilted>0</tilted></_>
    <_>
      <rects>
        <_>
          3 5 6 9 -1.</_>
        <_>
          5 5 2 9 3.</_></rects>
      <tilted>0</tilted></_>
    <_>
      <rects>
        <_>
          3 10 2 4 -1.</_>
        <_>
          3 10 1 2 2.</_>
        <_>
          4 12 1 2 2.</_></rects>
      <tilted>0</tilted></_>
    <_>
      <rects>
        <_>
          3 14 3 1 -1.</_>
        <_>
          4 14 1 1 3.</_></rects>
      <tilted>0</tilted></_>
    <_>
      <rects>
        <_>
          3 14 2 2 -1.</_>
        <_>
          3 15 2 1 2.</_></rects>
      <tilted>0</tilted></_>
    <_>
      <rects>
        <_>
          4 2 7 3 -1.</_>
        <_>
          4 3 7 1 3.</_></rects>
      <tilted>0</tilted></_>
    <_>
      <rects>
        <_>
          4 2 11 2 -1.</_>
        <_>
          4 3 11 1 2.</_></rects>
      <tilted>0</tilted></_>
    <_>
      <rects>
        <_>
          4 4 6 2 -1.</_>
        <_>
          7 4 3 2 2.</_></rects>
      <tilted>0</tilted></_>
    <_>
      <rects>
        <_>
          4 10 4 9 -1.</_>
        <_>
          4 13 4 3 3.</_></rects>
      <tilted>0</tilted></_>
    <_>
      <rects>
        <_>
          5 1 11 6 -1.</_>
        <_>
          5 3 11 2 3.</_></rects>
      <tilted>0</tilted></_>
    <_>
      <rects>
        <_>
          5 2 6 2 -1.</_>
        <_>
          5 3 6 1 2.</_></rects>
      <tilted>0</tilted></_>
    <_>
      <rects>
        <_>
          5 3 9 9 -1.</_>
        <_>
          8 3 3 9 3.</_></rects>
      <tilted>0</tilted></_>
    <_>
      <rects>
        <_>
          5 3 10 3 -1.</_>
        <_>
          10 3 5 3 2.</_></rects>
      <tilted>0</tilted></_>
    <_>
      <rects>
        <_>
          5 3 12 8 -1.</_>
        <_>
          11 3 6 8 2.</_></rects>
      <tilted>0</tilted></_>
    <_>
      <rects>
        <_>
          5 4 6 4 -1.</_>
        <_>
          5 4 3 2 2.</_>
        <_>
          8 6 3 2 2.</_></rects>
      <tilted>0</tilted></_>
    <_>
      <rects>
        <_>
          6 2 6 6 -1.</_>
        <_>
          9 2 3 6 2.</_></rects>
      <tilted>0</tilted></_>
    <_>
      <rects>
        <_>
          6 9 12 2 -1.</_>
        <_>
          12 9 6 2 2.</_></rects>
      <tilted>0</tilted></_>
    <_>
      <rects>
        <_>
          7 2 1 8 -1.</_>
        <_>
          7 6 1 4 2.</_></rects>
      <tilted>0</tilted></_>
    <_>
      <rects>
        <_>
          7 2 7 3 -1.</_>
        <_>
          7 3 7 1 3.</_></rects>
      <tilted>0</tilted></_>
    <_>
      <rects>
        <_>
          7 3 3 6 -1.</_>
        <_>
          7 5 3 2 3.</_></rects>
      <tilted>0</tilted></_>
    <_>
      <rects>
        <_>
          7 3 4 6 -1.</_>
        <_>
          7 5 4 2 3.</_></rects>
      <tilted>0</tilted></_>
    <_>
      <rects>
        <_>
          7 3 8 8 -1.</_>
        <_>
          7 3 4 4 2.</_>
        <_>
          11 7 4 4 2.</_></rects>
      <tilted>0</tilted></_>
    <_>
      <rects>
        <_>
          7 3 6 2 -1.</_>
        <_>
          7 4 6 1 2.</_></rects>
      <tilted>0</tilted></_>
    <_>
      <rects>
        <_>
          7 13 1 6 -1.</_>
        <_>
          7 15 1 2 3.</_></rects>
      <tilted>0</tilted></_>
    <_>
      <rects>
        <_>
          7 16 2 2 -1.</_>
        <_>
          7 17 2 1 2.</_></rects>
      <tilted>0</tilted></_>
    <_>
      <rects>
        <_>
          8 1 2 3 -1.</_>
        <_>
          8 2 2 1 3.</_></rects>
      <tilted>0</tilted></_>
    <_>
      <rects>
        <_>
          8 1 6 3 -1.</_>
        <_>
          8 2 6 1 3.</_></rects>
      <tilted>0</tilted></_>
    <_>
      <rects>
        <_>
          8 7 9 4 -1.</_>
        <_>
          11 7 3 4 3.</_></rects>
      <tilted>0</tilted></_>
    <_>
      <rects>
        <_>
          8 14 3 3 -1.</_>
        <_>
          8 15 3 1 3.</_></rects>
      <tilted>0</tilted></_>
    <_>
      <rects>
        <_>
          8 15 1 3 -1.</_>
        <_>
          8 16 1 1 3.</_></rects>
      <tilted>0</tilted></_>
    <_>
      <rects>
        <_>
          9 0 3 4 -1.</_>
        <_>
          10 0 1 4 3.</_></rects>
      <tilted>0</tilted></_>
    <_>
      <rects>
        <_>
          10 2 1 3 -1.</_>
        <_>
          10 3 1 1 3.</_></rects>
      <tilted>0</tilted></_>
    <_>
      <rects>
        <_>
          10 5 3 6 -1.</_>
        <_>
          10 8 3 3 2.</_></rects>
      <tilted>0</tilted></_>
    <_>
      <rects>
        <_>
          11 2 8 1 -1.</_>
        <_>
          15 2 4 1 2.</_></rects>
      <tilted>0</tilted></_>
    <_>
      <rects>
        <_>
          11 10 6 8 -1.</_>
        <_>
          11 10 3 4 2.</_>
        <_>
          14 14 3 4 2.</_></rects>
      <tilted>0</tilted></_>
    <_>
      <rects>
        <_>
          13 2 4 6 -1.</_>
        <_>
          13 2 2 3 2.</_>
        <_>
          15 5 2 3 2.</_></rects>
      <tilted>0</tilted></_>
    <_>
      <rects>
        <_>
          13 4 3 8 -1.</_>
        <_>
          13 8 3 4 2.</_></rects>
      <tilted>0</tilted></_>
    <_>
      <rects>
        <_>
          13 9 6 4 -1.</_>
        <_>
          15 9 2 4 3.</_></rects>
      <tilted>0</tilted></_>
    <_>
      <rects>
        <_>
          14 6 3 1 -1.</_>
        <_>
          15 6 1 1 3.</_></rects>
      <tilted>0</tilted></_>
    <_>
      <rects>
        <_>
          14 7 3 1 -1.</_>
        <_>
          15 7 1 1 3.</_></rects>
      <tilted>0</tilted></_>
    <_>
      <rects>
        <_>
          14 9 6 3 -1.</_>
        <_>
          16 9 2 3 3.</_></rects>
      <tilted>0</tilted></_>
    <_>
      <rects>
        <_>
          14 10 6 1 -1.</_>
        <_>
          16 10 2 1 3.</_></rects>
      <tilted>0</tilted></_>
    <_>
      <rects>
        <_>
          15 12 4 2 -1.</_>
        <_>
          15 12 2 1 2.</_>
        <_>
          17 13 2 1 2.</_></rects>
      <tilted>0</tilted></_>
    <_>
      <rects>
        <_>
          16 8 1 10 -1.</_>
        <_>
          16 13 1 5 2.</_></rects>
      <tilted>0</tilted></_>
    <_>
      <rects>
        <_>
          16 9 4 1 -1.</_>
        <_>
          18 9 2 1 2.</_></rects>
      <tilted>0</tilted></_>
    <_>
      <rects>
        <_>
          16 9 4 3 -1.</_>
        <_>
          18 9 2 3 2.</_></rects>
      <tilted>0</tilted></_>
    <_>
      <rects>
        <_>
          16 10 2 2 -1.</_>
        <_>
          16 10 1 1 2.</_>
        <_>
          17 11 1 1 2.</_></rects>
      <tilted>0</tilted></_>
    <_>
      <rects>
        <_>
          16 10 4 2 -1.</_>
        <_>
          18 10 2 2 2.</_></rects>
      <tilted>0</tilted></_>
    <_>
      <rects>
        <_>
          17 10 2 1 -1.</_>
        <_>
          18 10 1 1 2.</_></rects>
      <tilted>0</tilted></_>
    <_>
      <rects>
        <_>
          17 10 2 4 -1.</_>
        <_>
          17 10 1 2 2.</_>
        <_>
          18 12 1 2 2.</_></rects>
      <tilted>0</tilted></_></features></cascade>
</opencv_storage>
