<?xml version="1.0"?>
<opencv_storage>
<stage7>
  <maxWeakCount>9</maxWeakCount>
  <stageThreshold>-6.8376445770263672e-01</stageThreshold>
  <weakClassifiers>
    <_>
      <internalNodes>
        0 -1 76135 -1.2600028887391090e-02</internalNodes>
      <leafValues>
        7.0081299543380737e-01 -2.9444444179534912e-01</leafValues></_>
    <_>
      <internalNodes>
        0 -1 46742 -8.1843687221407890e-03</internalNodes>
      <leafValues>
        6.4965796470642090e-01 -2.9277184605598450e-01</leafValues></_>
    <_>
      <internalNodes>
        0 -1 4859 -6.0792583972215652e-03</internalNodes>
      <leafValues>
        7.8780215978622437e-01 -2.7575561404228210e-01</leafValues></_>
    <_>
      <internalNodes>
        0 -1 35557 6.0270731337368488e-03</internalNodes>
      <leafValues>
        -2.7556183934211731e-01 6.2482899427413940e-01</leafValues></_>
    <_>
      <internalNodes>
        0 -1 54233 -3.9050737395882607e-03</internalNodes>
      <leafValues>
        7.0448327064514160e-01 -2.6089492440223694e-01</leafValues></_>
    <_>
      <internalNodes>
        0 -1 77415 2.1483467426151037e-03</internalNodes>
      <leafValues>
        -3.0821695923805237e-01 5.1911258697509766e-01</leafValues></_>
    <_>
      <internalNodes>
        0 -1 17932 -1.6168232541531324e-03</internalNodes>
      <leafValues>
        2.3754434287548065e-01 -7.8827619552612305e-01</leafValues></_>
    <_>
      <internalNodes>
        0 -1 72381 2.4390316102653742e-03</internalNodes>
      <leafValues>
        -2.6316913962364197e-01 6.8806529045104980e-01</leafValues></_>
    <_>
      <internalNodes>
        0 -1 60364 3.1819015275686979e-03</internalNodes>
      <leafValues>
        2.2217644751071930e-01 -8.7481248378753662e-01</leafValues></_></weakClassifiers></stage7>
</opencv_storage>
