<?xml version="1.0"?>
<opencv_storage>
<stage4>
  <maxWeakCount>7</maxWeakCount>
  <stageThreshold>-1.0038303136825562e+00</stageThreshold>
  <weakClassifiers>
    <_>
      <internalNodes>
        0 -1 69249 1.0485821403563023e-02</internalNodes>
      <leafValues>
        -1.8383838236331940e-01 8.6666667461395264e-01</leafValues></_>
    <_>
      <internalNodes>
        0 -1 27490 -1.6923467628657818e-03</internalNodes>
      <leafValues>
        7.5465744733810425e-01 -3.1145688891410828e-01</leafValues></_>
    <_>
      <internalNodes>
        0 -1 29551 7.4689276516437531e-03</internalNodes>
      <leafValues>
        -3.5110926628112793e-01 6.7167985439300537e-01</leafValues></_>
    <_>
      <internalNodes>
        0 -1 72538 2.3048529401421547e-03</internalNodes>
      <leafValues>
        -2.7003955841064453e-01 9.2612749338150024e-01</leafValues></_>
    <_>
      <internalNodes>
        0 -1 76281 -6.7065411712974310e-04</internalNodes>
      <leafValues>
        6.3805246353149414e-01 -2.9722553491592407e-01</leafValues></_>
    <_>
      <internalNodes>
        0 -1 18796 6.0333511792123318e-03</internalNodes>
      <leafValues>
        -3.1779834628105164e-01 7.5016754865646362e-01</leafValues></_>
    <_>
      <internalNodes>
        0 -1 27471 1.4313161373138428e-03</internalNodes>
      <leafValues>
        -2.6614904403686523e-01 7.2763764858245850e-01</leafValues></_></weakClassifiers></stage4>
</opencv_storage>
