<?xml version="1.0"?>
<opencv_storage>
<stage14>
  <maxWeakCount>10</maxWeakCount>
  <stageThreshold>-8.8651168346405029e-01</stageThreshold>
  <weakClassifiers>
    <_>
      <internalNodes>
        0 -1 45505 2.5626271963119507e-02</internalNodes>
      <leafValues>
        -4.3636362999677658e-02 8.2117646932601929e-01</leafValues></_>
    <_>
      <internalNodes>
        0 -1 70719 9.0652974322438240e-03</internalNodes>
      <leafValues>
        -2.0360155403614044e-01 6.9029825925827026e-01</leafValues></_>
    <_>
      <internalNodes>
        0 -1 4410 -8.5048479959368706e-03</internalNodes>
      <leafValues>
        5.3851914405822754e-01 -2.7147594094276428e-01</leafValues></_>
    <_>
      <internalNodes>
        0 -1 66042 -4.1554011404514313e-03</internalNodes>
      <leafValues>
        -8.6783266067504883e-01 1.5233391523361206e-01</leafValues></_>
    <_>
      <internalNodes>
        0 -1 67085 3.5857874900102615e-03</internalNodes>
      <leafValues>
        -3.6619651317596436e-01 3.8014665246009827e-01</leafValues></_>
    <_>
      <internalNodes>
        0 -1 76859 -1.9978289492428303e-03</internalNodes>
      <leafValues>
        -5.9191298484802246e-01 2.6798489689826965e-01</leafValues></_>
    <_>
      <internalNodes>
        0 -1 58612 -4.2986413463950157e-03</internalNodes>
      <leafValues>
        -7.7885937690734863e-01 1.3746070861816406e-01</leafValues></_>
    <_>
      <internalNodes>
        0 -1 41181 -1.9850540906190872e-02</internalNodes>
      <leafValues>
        4.8488667607307434e-01 -2.9591041803359985e-01</leafValues></_>
    <_>
      <internalNodes>
        0 -1 39634 -1.0647068265825510e-03</internalNodes>
      <leafValues>
        4.4403114914894104e-01 -3.8374027609825134e-01</leafValues></_>
    <_>
      <internalNodes>
        0 -1 29838 -3.7681348621845245e-02</internalNodes>
      <leafValues>
        -8.1642192602157593e-01 1.7481654882431030e-01</leafValues></_></weakClassifiers></stage14>
</opencv_storage>
