<?xml version="1.0"?>
<opencv_storage>
<stage11>
  <maxWeakCount>10</maxWeakCount>
  <stageThreshold>-8.6678034067153931e-01</stageThreshold>
  <weakClassifiers>
    <_>
      <internalNodes>
        0 -1 75654 1.4125913381576538e-02</internalNodes>
      <leafValues>
        -3.8790035247802734e-01 6.2536025047302246e-01</leafValues></_>
    <_>
      <internalNodes>
        0 -1 20360 -1.0412509553134441e-02</internalNodes>
      <leafValues>
        5.2939641475677490e-01 -2.8183043003082275e-01</leafValues></_>
    <_>
      <internalNodes>
        0 -1 59315 2.4402884300798178e-03</internalNodes>
      <leafValues>
        -3.4062346816062927e-01 4.3552479147911072e-01</leafValues></_>
    <_>
      <internalNodes>
        0 -1 50919 1.1182547546923161e-02</internalNodes>
      <leafValues>
        1.8457497656345367e-01 -8.4198325872421265e-01</leafValues></_>
    <_>
      <internalNodes>
        0 -1 12193 -6.3263783231377602e-03</internalNodes>
      <leafValues>
        6.4030569791793823e-01 -2.4231578409671783e-01</leafValues></_>
    <_>
      <internalNodes>
        0 -1 31679 6.4653703011572361e-03</internalNodes>
      <leafValues>
        -4.6783226728439331e-01 3.5658046603202820e-01</leafValues></_>
    <_>
      <internalNodes>
        0 -1 46070 -3.5968524753116071e-04</internalNodes>
      <leafValues>
        2.0501671731472015e-01 -8.3835530281066895e-01</leafValues></_>
    <_>
      <internalNodes>
        0 -1 76249 -3.1994305551052094e-02</internalNodes>
      <leafValues>
        7.1726340055465698e-01 -2.3646636307239532e-01</leafValues></_>
    <_>
      <internalNodes>
        0 -1 74362 -8.1273179966956377e-04</internalNodes>
      <leafValues>
        4.5358544588088989e-01 -3.2366129755973816e-01</leafValues></_>
    <_>
      <internalNodes>
        0 -1 69952 2.0078197121620178e-03</internalNodes>
      <leafValues>
        2.1303109824657440e-01 -7.1132814884185791e-01</leafValues></_></weakClassifiers></stage11>
</opencv_storage>
