<?xml version="1.0"?>
<opencv_storage>
<stage2>
  <maxWeakCount>5</maxWeakCount>
  <stageThreshold>-4.1163605451583862e-01</stageThreshold>
  <weakClassifiers>
    <_>
      <internalNodes>
        0 -1 72864 1.0961786843836308e-02</internalNodes>
      <leafValues>
        -3.5609754920005798e-01 8.3362829685211182e-01</leafValues></_>
    <_>
      <internalNodes>
        0 -1 46379 8.8599324226379395e-03</internalNodes>
      <leafValues>
        -3.2767295837402344e-01 8.8542705774307251e-01</leafValues></_>
    <_>
      <internalNodes>
        0 -1 18796 4.0442757308483124e-03</internalNodes>
      <leafValues>
        -2.7657428383827209e-01 8.8801330327987671e-01</leafValues></_>
    <_>
      <internalNodes>
        0 -1 10751 6.0397256165742874e-03</internalNodes>
      <leafValues>
        -3.3160337805747986e-01 8.8407683372497559e-01</leafValues></_>
    <_>
      <internalNodes>
        0 -1 54331 1.3462735805660486e-03</internalNodes>
      <leafValues>
        -2.8427544236183167e-01 8.8727170228958130e-01</leafValues></_></weakClassifiers></stage2>
</opencv_storage>
