<?xml version="1.0"?>
<opencv_storage>
<stage3>
  <maxWeakCount>6</maxWeakCount>
  <stageThreshold>-7.2107732295989990e-01</stageThreshold>
  <weakClassifiers>
    <_>
      <internalNodes>
        0 -1 69716 -8.4611177444458008e-03</internalNodes>
      <leafValues>
        6.8592590093612671e-01 -4.6000000834465027e-01</leafValues></_>
    <_>
      <internalNodes>
        0 -1 36330 9.7146874759346247e-04</internalNodes>
      <leafValues>
        -6.5378439426422119e-01 4.8925897479057312e-01</leafValues></_>
    <_>
      <internalNodes>
        0 -1 76245 -1.4306176453828812e-02</internalNodes>
      <leafValues>
        6.6284561157226562e-01 -4.7216990590095520e-01</leafValues></_>
    <_>
      <internalNodes>
        0 -1 59315 2.4320576339960098e-03</internalNodes>
      <leafValues>
        -3.5025539994239807e-01 7.2820150852203369e-01</leafValues></_>
    <_>
      <internalNodes>
        0 -1 12266 -5.1427348516881466e-03</internalNodes>
      <leafValues>
        4.5008963346481323e-01 -6.7851579189300537e-01</leafValues></_>
    <_>
      <internalNodes>
        0 -1 49778 -2.5168396532535553e-03</internalNodes>
      <leafValues>
        7.6504278182983398e-01 -3.2406893372535706e-01</leafValues></_></weakClassifiers></stage3>
</opencv_storage>
